-0.5614866,0.3135993;
-0.5515279,0.4368798;
-0.54657584,0.46510154;
-0.54538053,0.44666535;
-0.5449533,0.4281528;
-0.54422116,0.41757315;
-0.54322785,0.40981352;
-0.54217386,0.4017784;
-0.5411386,0.3933128;
-0.5401228,0.38489598;
-0.5391137,0.37671047;
-0.5381063,0.36873716;
-0.53710073,0.36094302;
-0.53609836,0.35332376;
-0.53510016,0.3458848;
-0.5341063,0.3386292;
-0.5331174,0.33155632;
-0.5321335,0.32466477;
-0.53115517,0.31795257;
-0.53018254,0.3114174;
-0.52921605,0.30505627;
-0.5282558,0.2988659;
-0.5273021,0.29284263;
-0.52635515,0.28698254;
-0.5254151,0.28128147;
-0.52448225,0.27573514;
-0.5235567,0.27033907;
-0.5226386,0.26508898;
-0.5217281,0.25998032;
-0.5208252,0.25500858;
-0.5199302,0.25016928;
-0.51904297,0.24545813;
-0.5181637,0.24087071;
-0.5172925,0.23640293;
-0.51642936,0.2320506;
-0.51557434,0.22780949;
-0.51472753,0.22367603;
-0.51388884,0.2196464;
-0.5130583,0.21571672;
-0.512236,0.21188354;
-0.51142186,0.20814365;
-0.5106159,0.20449352;
-0.5098181,0.20093018;
-0.50902843,0.19745046;
-0.50824696,0.19405162;
-0.5074735,0.19073087;
-0.50670815,0.18748534;
-0.5059507,0.18431264;
-0.5052012,0.18121028;
-0.50445974,0.17817593;
-0.50372607,0.17520738;
-0.50300014,0.17230237;
-0.50228196,0.16945893;
-0.5015714,0.16667497;
-0.5008685,0.16394883;
-0.50017303,0.1612786;
-0.49948508,0.15866262;
-0.4988044,0.15609908;
-0.498131,0.15358657;
-0.49746493,0.15112346;
-0.49680588,0.1487084;
-0.49615383,0.1463399;
-0.49550885,0.14401668;
-0.49487066,0.14173758;
-0.4942393,0.13950127;
-0.49361455,0.13730663;
-0.49299645,0.13515246;
-0.4923849,0.13303763;
-0.4917797,0.1309613;
-0.49118087,0.12892246;
-0.49058822,0.12692004;
-0.4900017,0.12495315;
-0.4894213,0.12302089;
-0.48884684,0.12112242;
-0.48827833,0.11925697;
-0.48771545,0.11742389;
-0.48715827,0.1156221;
-0.4866067,0.11385113;
-0.48606062,0.11211008;
-0.48551995,0.11039847;
-0.4849846,0.108715475;
-0.48445445,0.10706067;
-0.48392937,0.105433166;
-0.48340943,0.1038326;
-0.48289436,0.102258325;
-0.48238415,0.100709796;
-0.4818787,0.09918648;
-0.4813779,0.09768778;
-0.4808817,0.09621334;
-0.48038995,0.09476256;
-0.47990268,0.09333497;
-0.4794197,0.09193021;
-0.4789409,0.09054768;
-0.4784663,0.089187145;
-0.47799566,0.08784807;
-0.47752908,0.08653009;
-0.47706643,0.085232735;
-0.47660747,0.083955705;
-0.4761522,0.08269864;
-0.4757006,0.08146107;
-0.4752525,0.08024275;
-0.47480792,0.07904339;
-0.47436672,0.07786232;
-0.4739288,0.076699674;
-0.4734941,0.07555491;
-0.47306255,0.074427605;
-0.47263405,0.07331759;
-0.47220847,0.07222456;
-0.47178584,0.07114822;
-0.47136608,0.07008827;
-0.47094902,0.06904453;
-0.4705346,0.06801671;
-0.4701228,0.06700444;
-0.46971357,0.066007495;
-0.46930674,0.06502563;
-0.46890232,0.0640586;
-0.46850008,0.06310618;
-0.4681002,0.06216824;
-0.46770233,0.06124431;
-0.4673066,0.060334384;
-0.46691293,0.05943811;
-0.46652114,0.058555424;
-0.46613124,0.05768591;
-0.46574315,0.05682957;
-0.46535674,0.055985928;
-0.464972,0.0551551;
-0.4645889,0.054336727;
-0.4642073,0.053530574;
-0.4638271,0.05273646;
-0.46344835,0.05195427;
-0.4630709,0.05118394;
-0.4626947,0.050425112;
-0.4623197,0.04967761;
-0.46194586,0.048941255;
-0.46157303,0.048216045;
-0.46120122,0.047501564;
-0.4608304,0.046797812;
-0.46046036,0.04610479;
-0.46009123,0.0454219;
-0.45972282,0.04474938;
-0.45935506,0.044086993;
-0.4589879,0.0434345;
-0.45862138,0.042791665;
-0.4582553,0.042158544;
-0.4578897,0.04153496;
-0.45752454,0.040920615;
-0.4571596,0.040315628;
-0.45679495,0.03971964;
-0.45643058,0.039132714;
-0.45606634,0.03855449;
-0.4557022,0.037985027;
-0.4553381,0.037424147;
-0.4549739,0.03687167;
-0.45460975,0.03632754;
-0.4542454,0.035791516;
-0.45388088,0.035263658;
-0.45351604,0.034743726;
-0.453151,0.034231663;
-0.45278552,0.033727348;
-0.45241973,0.033230603;
-0.45205343,0.032741427;
-0.4516866,0.032259583;
-0.45131928,0.03178513;
-0.45095125,0.03131777;
-0.4505826,0.030857444;
-0.4502132,0.03040427;
-0.44984302,0.02995789;
-0.44947204,0.029518187;
-0.4491002,0.029085279;
-0.44872737,0.028658986;
-0.4483536,0.028239131;
-0.44797873,0.027825713;
-0.44760278,0.027418613;
-0.4472258,0.027017534;
-0.4468476,0.026622832;
-0.44646814,0.02623403;
-0.44608742,0.02585125;
-0.44570535,0.02547419;
-0.445322,0.025103033;
-0.44493714,0.024737537;
-0.44455087,0.024377763;
-0.44416308,0.024023354;
-0.4437737,0.023674428;
-0.44338274,0.023330867;
-0.44299012,0.022992611;
-0.44259578,0.02265966;
-0.4421997,0.022331715;
-0.44180188,0.022008896;
-0.4414022,0.021691024;
-0.44100073,0.0213781;
-0.4405972,0.021070063;
-0.44019186,0.020766675;
-0.43978447,0.020468116;
-0.43937504,0.020174205;
-0.43896353,0.019884825;
-0.43854985,0.019599915;
-0.43813407,0.019319475;
-0.43771607,0.019043326;
-0.43729585,0.018771589;
-0.43687335,0.018504083;
-0.43644857,0.01824069;
-0.43602136,0.01798141;
-0.43559182,0.017726243;
-0.4351598,0.017475069;
-0.43472534,0.017227829;
-0.43428844,0.016984522;
-0.43384898,0.016744971;
-0.43340692,0.016509235;
-0.43296233,0.016277134;
-0.43251505,0.016048789;
-0.4320652,0.0158239;
-0.43161258,0.0156027675;
-0.43115726,0.015384972;
-0.4306992,0.015170634;
-0.43023843,0.014959812;
-0.42977473,0.014752269;
-0.42930827,0.014548004;
-0.42883897,0.014346957;
-0.42836672,0.014149129;
-0.4278916,0.013954461;
-0.42741364,0.013762951;
-0.42693263,0.013574362;
-0.42644864,0.013388872;
-0.42596167,0.013206303;
-0.42547175,0.013026655;
-0.4249787,0.012849927;
-0.42448267,0.012676001;
-0.42398357,0.012504876;
-0.42348143,0.012336552;
-0.42297617,0.012170792;
-0.42246777,0.0120078325;
-0.42195627,0.011847436;
-0.4214416,0.011689544;
-0.42092383,0.011534333;
-0.42040297,0.011381626;
-0.41987884,0.011231303;
-0.41935164,0.011083484;
-0.41882136,0.010938108;
-0.4182878,0.010794997;
-0.41775104,0.010654151;
-0.41721117,0.01051563;
-0.4166681,0.010379434;
-0.41612193,0.010245502;
-0.41557258,0.010113597;
-0.41502008,0.009983957;
-0.41446438,0.009856343;
-0.4139056,0.009730816;
-0.41334367,0.009607434;
-0.41277865,0.00948596;
-0.41221052,0.009366512;
-0.41163933,0.009249032;
-0.41106498,0.009133577;
-0.41048768,0.009019911;
-0.40990734,0.008908093;
-0.40932402,0.008798122;
-0.40873766,0.00869;
-0.4081484,0.008583605;
-0.40755624,0.008479059;
-0.40696102,0.008376181;
-0.40636307,0.008275032;
-0.40576223,0.008175433;
-0.40515858,0.008077621;
-0.4045522,0.007981479;
-0.40394306,0.007886767;
-0.40333128,0.0077937245;
-0.40271685,0.007702172;
-0.40209973,0.007612109;
-0.40148014,0.0075235963;
-0.40085807,0.0074365735;
-0.40023345,0.0073509812;
-0.39960653,0.00726676;
-0.3989772,0.0071840286;
-0.39834556,0.0071026087;
-0.3977117,0.0070225596;
-0.39707568,0.0069437623;
-0.3964375,0.006866455;
-0.39579734,0.00679034;
-0.39515507,0.006715536;
-0.39451098,0.0066419244;
-0.39386502,0.0065695643;
-0.39321724,0.0064983964;
-0.39256784,0.00642848;
-0.39191675,0.006359756;
-0.39126408,0.0062921047;
-0.39060995,0.006225586;
-0.38995445,0.0061601996;
-0.3892976,0.006095946;
-0.3886395,0.0060327053;
-0.3879803,0.005970478;
-0.38732,0.0059095025;
-0.3866588,0.005849421;
-0.38599664,0.0057902336;
-0.38533375,0.0057321787;
-0.38467023,0.005675137;
-0.384006,0.0056189895;
-0.38334128,0.005563736;
-0.38267612,0.0055094957;
-0.38201076,0.00545609;
-0.38134518,0.0054035783;
-0.38067952,0.00535208;
-0.38001376,0.0053013563;
-0.37934816,0.005251467;
-0.37868285,0.0052024126;
-0.37801772,0.005154252;
-0.37735316,0.0051068068;
-0.37668908,0.005060196;
-0.37602568,0.0050143003;
-0.37536293,0.0049692392;
-0.3747011,0.004924953;
-0.3740403,0.004881382;
-0.3733807,0.0048385262;
-0.3727221,0.0047963858;
-0.3720649,0.0047549605;
-0.3714092,0.00471431;
-0.370755,0.0046741962;
-0.3701024,0.004634857;
-0.36945167,0.004596114;
-0.36880288,0.0045580864;
-0.36815605,0.0045206547;
-0.3675114,0.0044837594;
-0.366869,0.00444752;
-0.36622897,0.004411936;
-0.36559144,0.004376948;
-0.3649565,0.004342437;
-0.36432424,0.0043085217;
-0.36369488,0.004275322;
-0.3630683,0.00424248;
-0.362445,0.0042102933;
-0.36182478,0.004178643;
-0.3612079,0.0041474104;
-0.3605943,0.0041166544;
-0.3599843,0.004086554;
-0.35937786,0.004056871;
-0.3587752,0.004027784;
-0.35817632,0.0039990544;
-0.3575814,0.003970742;
-0.35699055,0.0039429665;
-0.35640386,0.0039156675;
-0.3558214,0.0038887858;
-0.35524333,0.0038623214;
-0.35466975,0.0038362741;
-0.35410064,0.0038107038;
-0.35353625,0.0037855506;
-0.35297656,0.0037608147;
-0.35242176,0.0037364364;
-0.3518718,0.0037124157;
-0.3513269,0.0036887527;
-0.35078704,0.0036655664;
-0.35025245,0.0036427379;
-0.34972316,0.003620088;
-0.34919918,0.0035979748;
-0.34868065,0.003576219;
-0.34816772,0.0035547614;
-0.34766024,0.003533721;
-0.3471584,0.0035128593;
-0.3466625,0.003492415;
-0.34617233,0.0034722686;
-0.34568807,0.0034524798;
-0.34520963,0.0034329891;
-0.3447372,0.0034137964;
-0.34427083,0.0033948421;
-0.34381068,0.0033762455;
-0.34335655,0.0033578873;
-0.34290868,0.0033397675;
-0.34246692,0.0033220053;
-0.34203172,0.0033044815;
-0.34160262,0.0032873154;
-0.34118006,0.0032702684;
-0.34076402,0.0032535791;
-0.3403544,0.0032371283;
-0.33995122,0.0032208562;
-0.3395546,0.0032048821;
-0.33916453,0.0031891465;
-0.33878106,0.003173709;
-0.33840424,0.0031584501;
-0.33803397,0.0031434298;
-0.3376703,0.0031285882;
-0.33731335,0.0031139255;
-0.33696324,0.0030995607;
-0.33661962,0.0030853748;
-0.33628273,0.0030713677;
-0.33595255,0.0030576587;
-0.33562922,0.0030441284;
-0.33531246,0.0030307174;
-0.33500242,0.0030176044;
-0.33469903,0.003004551;
-0.3344024,0.002991736;
-0.3341125,0.002979219;
-0.33382922,0.0029667616;
-0.33355263,0.0029544234;
-0.33328274,0.0029423237;
-0.33301932,0.0029304624;
-0.33276257,0.0029186606;
-0.33251256,0.002907157;
-0.33226898,0.0028956532;
-0.33203197,0.002884388;
-0.33180147,0.002873361;
-0.33157748,0.0028623343;
-0.33135995,0.0028515458;
-0.33114892,0.0028408766;
-0.3309442,0.0028304458;
-0.33074573,0.002820015;
-0.3305537,0.0028098226;
-0.33036795,0.0027997494;
-0.33018845,0.0027897954;
-0.33001515,0.0027800798;
-0.3298479,0.0027703643;
-0.32968697,0.002760768;
-0.3295319,0.00275141;
-0.32938305,0.0027421117;
-0.32924,0.002732873;
-0.3291029,0.0027238727;
-0.32897174,0.0027149916;
-0.3288463,0.0027061105;
-0.3287266,0.0026974678;
-0.32861274,0.0026888847;
-0.3285046,0.0026803613;
-0.32840183,0.0026720762;
-0.32830474,0.0026637912;
-0.32821304,0.0026555657;
-0.32812694,0.0026476383;
-0.3280462,0.002639711;
-0.32797086,0.002631843;
-0.32790044,0.0026240349;
-0.32783538,0.002616465;
-0.3277755,0.0026088953;
-0.32772085,0.0026015043;
-0.32767093,0.002594173;
-0.32762623,0.0025869012;
-0.32758614,0.002579689;
-0.3275512,0.0025727153;
-0.32752088,0.002565682;
-0.32749516,0.0025587082;
-0.32747427,0.0025519133;
-0.3274579,0.002545178;
-0.3274461,0.0025385618;
-0.32743877,0.0025320053;
-0.32743582,0.0025255084;
-0.32743734,0.002519071;
-0.32744285,0.0025128126;
-0.3274527,0.0025064945;
-0.32746685,0.0025003552;
-0.3274851,0.0024942756;
-0.3275073,0.0024882555;
-0.32753357,0.002482295;
-0.32756385,0.0024763942;
-0.32759792,0.002470553;
-0.3276358,0.0024648905;
-0.32767725,0.0024591684;
-0.32772255,0.0024536252;
-0.32777143,0.0024480224;
-0.32782406,0.0024425983;
-0.3278801,0.0024371147;
-0.32793957,0.00243181;
-0.32800254,0.0024265647;
-0.3280689,0.0024213195;
-0.32813856,0.0024161339;
-0.3282115,0.0024110079;
-0.32828742,0.0024060607;
-0.32836658,0.002401054;
-0.32844886,0.002396047;
-0.32853436,0.0023912191;
-0.3286228,0.0023863316;
-0.3287141,0.0023816228;
-0.32880825,0.0023769736;
-0.3289053,0.0023723245;
-0.32900533,0.002367735;
-0.32910797,0.0023630857;
-0.32921326,0.002358675;
-0.3293214,0.0023542047;
-0.32943213,0.002349794;
-0.32954535,0.0023455024;
-0.32966122,0.0023411512;
-0.32977942,0.002336979;
-0.32990018,0.0023326874;
-0.33002347,0.0023285747;
-0.330149,0.0023245215;
-0.33027688,0.0023203492;
-0.33040693,0.0023163557;
-0.3305396,0.0023124218;
-0.33067432,0.002308488;
-0.3308111,0.0023046136;
-0.33095005,0.002300799;
-0.33109096,0.0022969842;
-0.33123448,0.002293229;
-0.33137965,0.0022895336;
-0.33152673,0.0022858381;
-0.33167607,0.0022821426;
-0.3318271,0.002278626;
-0.33198038,0.0022750497;
-0.3321353,0.0022714734;
-0.33229196,0.002268076;
-0.33245066,0.0022646189;
-0.3326109,0.0022611618;
-0.33277306,0.0022577047;
-0.332937,0.0022544265;
-0.33310258,0.0022510886;
-0.33326986,0.00224787;
-0.33343872,0.0022446513;
-0.33360916,0.0022414923;
-0.33378145,0.0022382736;
-0.33395514,0.002235055;
-0.33413035,0.0022319555;
-0.33430701,0.002228856;
-0.33448535,0.0022259355;
-0.33466488,0.002222836;
-0.33484614,0.0022198558;
-0.33502868,0.0022169948;
-0.33521277,0.0022140741;
-0.33539793,0.002211213;
-0.3355847,0.002208352;
-0.33577287,0.002205491;
-0.33596227,0.00220263;
-0.33615288,0.0021999478;
-0.33634466,0.002197206;
-0.336538,0.0021944642;
-0.3367322,0.0021917224;
-0.33692798,0.0021890998;
-0.33712497,0.0021865368;
-0.3373229,0.0021839142;
-0.33752203,0.0021812916;
-0.3377223,0.002178669;
-0.3379236,0.0021761656;
-0.3381262,0.0021737218;
-0.33833006,0.0021712184;
-0.33853486,0.002168715;
-0.33874074,0.0021663308;
-0.33894745,0.0021638274;
-0.33915538,0.0021614432;
-0.33936414,0.0021591187;
-0.3395737,0.0021568537;
-0.3397847,0.0021544695;
-0.33999646,0.0021522045;
-0.34020934,0.0021499395;
-0.340423,0.0021476746;
-0.34063777,0.0021454692;
-0.34085318,0.0021432042;
-0.34106976,0.0021410584;
-0.34128702,0.0021389127;
-0.34150508,0.0021366477;
-0.34172428,0.0021346211;
-0.3419441,0.002132535;
-0.34216496,0.0021303892;
-0.3423865,0.0021283627;
-0.34260914,0.002126217;
-0.34283212,0.0021241903;
-0.34305593,0.0021221638;
-0.34328076,0.0021202564;
-0.34350637,0.0021182895;
-0.34373242,0.0021163821;
-0.3439595,0.0021143556;
-0.344187,0.0021124482;
-0.34441546,0.0021105409;
-0.3446446,0.0021086335;
-0.34487447,0.0021067262;
-0.34510472,0.0021049976;
-0.34533584,0.0021030903;
-0.34556773,0.0021013021;
-0.34580016,0.002099514;
-0.34603342,0.0020977259;
-0.3462672,0.0020959377;
-0.34650147,0.0020941496;
-0.34673643,0.0020924807;
-0.34697214,0.0020907521;
-0.34720826,0.0020890832;
-0.34744522,0.002087295;
-0.34768233,0.0020856261;
-0.3479203,0.0020839572;
-0.34815875,0.0020822883;
-0.34839752,0.0020807385;
-0.34863722,0.0020790696;
-0.34887743,0.0020774007;
-0.34911785,0.0020759106;
-0.3493591,0.0020743608;
-0.34960082,0.0020728111;
-0.349843,0.0020711422;
-0.35008553,0.0020697117;
-0.35032856,0.002068162;
-0.35057226,0.0020666122;
-0.35081625,0.0020650625;
-0.35106093,0.002063632;
-0.35130605,0.002062142;
-0.35155147,0.0020607114;
-0.3517973,0.0020592809;
-0.35204363,0.0020578504;
-0.35229033,0.0020564198;
-0.35253772,0.0020549893;
-0.35278502,0.0020535588;
-0.35303307,0.0020521283;
-0.35328153,0.002050817;
-0.35353053,0.0020493865;
-0.3537798,0.0020480752;
-0.35402927,0.0020467043;
-0.35427934,0.002045393;
-0.35452965,0.0020440817;
-0.35478032,0.0020427704;
-0.3550313,0.002041459;
-0.35528293,0.0020401478;
-0.3555344,0.0020388365;
-0.3557866,0.0020376444;
-0.3560389,0.002036333;
-0.35629168,0.002035141;
-0.35654444,0.0020338297;
-0.35679793,0.0020326972;
-0.3570513,0.002031386;
-0.35730544,0.0020301938;
-0.35755965,0.0020290017;
-0.35781434,0.0020278096;
-0.35806903,0.0020266175;
-0.35832423,0.0020254254;
-0.3585795,0.0020242333;
-0.3588352,0.0020231605;
-0.35909104,0.0020219684;
-0.35934702,0.0020208955;
-0.35960317,0.0020197034;
-0.35985985,0.0020186305;
-0.36011678,0.002017498;
-0.36037397,0.0020164251;
-0.3606314,0.0020153522;
-0.3608888,0.0020142794;
-0.36114645,0.0020130873;
-0.36140472,0.0020120144;
-0.36166292,0.0020110607;
-0.36192143,0.0020099878;
-0.36218014,0.002008915;
-0.36243892,0.002007842;
-0.36269814,0.0020067692;
-0.3629573,0.0020058155;
-0.3632164,0.0020047426;
-0.3634763,0.002003789;
-0.36373582,0.0020027757;
-0.36399564,0.002001822;
-0.3642558,0.0020008683;
-0.36451596,0.0019997954;
-0.3647763,0.0019988418;
-0.3650369,0.001997888;
-0.36529747,0.0019969344;
-0.3655582,0.0019959807;
-0.36581936,0.001995027;
-0.36608046,0.0019940734;
-0.36634144,0.0019931197;
-0.36660293,0.0019922853;
-0.36686456,0.0019913316;
-0.36712602,0.001990378;
-0.3673877,0.0019895434;
-0.36764944,0.0019886494;
-0.36791143,0.001987815;
-0.3681734,0.0019868612;
-0.36843577,0.0019860268;
-0.368698,0.001985073;
-0.3689602,0.0019842386;
-0.36922237,0.0019834042;
-0.3694848,0.0019825697;
-0.36974776,0.0019817352;
-0.3700105,0.0019809008;
-0.37027296,0.0019800663;
-0.37053585,0.0019792318;
-0.37079895,0.0019783974;
-0.37106177,0.001977563;
-0.37132472,0.0019767284;
-0.3715878,0.001975894;
-0.37185097,0.0019750595;
-0.37211382,0.0019743443;
-0.3723774,0.0019735694;
-0.37264064,0.001972735;
-0.37290376,0.0019720197;
-0.37316704,0.0019711852;
-0.37343055,0.00197047;
-0.3736938,0.0019696355;
-0.3739573,0.0019689202;
-0.3742209,0.001968205;
-0.37448448,0.0019673705;
-0.37474778,0.0019666553;
-0.3750114,0.00196594;
-0.37527484,0.0019652247;
-0.37553838,0.0019643903;
-0.37580198,0.001963675;
-0.37606543,0.0019629598;
-0.37632906,0.0019622445;
-0.3765928,0.0019615293;
-0.37685624,0.001960814;
-0.37712008,0.0019600987;
-0.37738347,0.0019595027;
-0.37764713,0.001958847;
-0.37791064,0.0019581318;
-0.37817425,0.0019574165;
-0.3784379,0.0019567013;
-0.3787013,0.0019561052;
-0.37896478,0.00195539;
-0.37922806,0.001954794;
-0.37949157,0.0019540787;
-0.37975445,0.0019533634;
-0.38001797,0.0019527674;
-0.38028157,0.0019520521;
-0.38054466,0.0019514561;
-0.3808083,0.00195086;
-0.38107145,0.0019501448;
-0.3813344,0.0019495487;
-0.38159734,0.0019489527;
-0.38186044,0.0019482374;
-0.3821234,0.0019476414;
-0.38238668,0.0019470453;
-0.38264966,0.0019464493;
-0.38291228,0.0019458532;
-0.38317487,0.0019452572;
-0.38343748,0.0019445419;
-0.38370037,0.0019439459;
-0.38396314,0.0019434094;
-0.38422552,0.0019428134;
-0.38448778,0.0019422174;
-0.3847505,0.0019417405;
-0.3850132,0.0019411445;
-0.38527507,0.0019405484;
-0.38553756,0.0019399524;
-0.3857994,0.0019393563;
-0.38606134,0.0019387603;
-0.38632312,0.0019382834;
-0.38658524,0.0019376874;
-0.3868469,0.0019370914;
-0.38710934,0.0019366145;
-0.38737026,0.0019360185;
-0.38763168,0.0019354224;
-0.3878932,0.0019349456;
-0.38815406,0.0019343495;
-0.3884155,0.0019338727;
-0.38867623,0.0019332767;
-0.38893712,0.0019327998;
-0.38919824,0.0019322038;
-0.38945875,0.0019317269;
-0.38971958,0.0019312501;
-0.38998023,0.001930654;
-0.3902405,0.0019301772;
-0.3905013,0.0019297004;
-0.3907612,0.0019291043;
-0.3910214,0.0019286275;
-0.39128125,0.0019282103;
-0.39154133,0.0019276142;
-0.39180085,0.0019271374;
-0.3920606,0.0019266605;
-0.39231998,0.0019261837;
-0.39257923,0.0019257069;
-0.39283854,0.00192523;
-0.3930974,0.0019247532;
-0.39335656,0.0019242764;
-0.39361516,0.0019237995;
-0.39387375,0.0019233227;
-0.39413285,0.0019228458;
-0.39439115,0.001922369;
-0.3946488,0.0019218922;
-0.39490741,0.0019214153;
-0.3951652,0.0019209385;
-0.39542255,0.0019204617;
-0.39568022,0.0019199848;
-0.3959386,0.001919508;
-0.39619616,0.0019191504;
-0.39645308,0.0019186735;
-0.39671025,0.0019181967;
-0.3969673,0.0019177198;
-0.3972246,0.0019173622;
-0.39748108,0.0019168854;
-0.3977376,0.0019164085;
-0.39799392,0.0019160509;
-0.3982508,0.0019155741;
-0.39850634,0.0019150972;
-0.39876285,0.0019147396;
-0.3990185,0.0019142628;
-0.3992742,0.0019139051;
-0.39952996,0.0019134283;
-0.39978534,0.0019130707;
-0.4000405,0.0019126534;
-0.40029573,0.0019122958;
-0.40055037,0.001911819;
-0.40080523,0.0019114614;
-0.40105948,0.0019109845;
-0.40131426,0.0019106269;
-0.40156794,0.00191015;
-0.40182215,0.0019097924;
-0.40207615,0.0019094348;
-0.40232998,0.001908958;
-0.40258318,0.0019086003;
-0.40283662,0.0019082427;
-0.40308994,0.0019077659;
-0.40334237,0.0019074082;
-0.40359557,0.0019070506;
-0.40384832,0.001906693;
-0.4041007,0.0019063354;
-0.40435332,0.0019058585;
-0.4046051,0.0019055009;
-0.40485668,0.0019051433;
-0.40510875,0.0019047856;
-0.40536022,0.001904428;
-0.40561172,0.0019040704;
-0.40586263,0.0019037127;
-0.40611425,0.0019032359;
-0.40636447,0.0019028783;
-0.4066146,0.0019025207;
-0.40686542,0.001902163;
-0.40711588,0.0019018054;
-0.40736562,0.0019014478;
-0.4076157,0.0019010901;
-0.4078651,0.0019007325;
-0.40811455,0.0019003749;
-0.40836382,0.0019000173;
-0.40861294,0.0018997788;
-0.40886185,0.0018994212;
-0.40911034,0.0018990636;
-0.40935913,0.001898706;
-0.4096073,0.0018983483;
-0.40985543,0.0018979907;
-0.41010317,0.0018976331;
-0.410351,0.0018972754;
-0.41059864,0.0018970966;
-0.4108463,0.001896739;
-0.41109353,0.0018963814;
-0.41134065,0.0018960238;
-0.41158727,0.0018957853;
-0.4118337,0.0018954277;
-0.4120807,0.0018950701;
-0.41232675,0.0018947124;
-0.41257197,0.001894474;
-0.41281748,0.0018941164;
-0.41306344,0.0018937588;
-0.4133088,0.0018935204;
-0.4135537,0.0018931627;
-0.4137989,0.0018928051;
-0.4140439,0.0018925667;
-0.414288,0.001892209;
-0.41453242,0.0018919706;
-0.41477636,0.001891613;
-0.41502064,0.0018913746;
-0.41526398,0.001891017;
-0.41550785,0.0018906593;
-0.41575128,0.0018904209;
-0.4159948,0.0018900633;
-0.41623735,0.0018898249;
-0.41648,0.0018894672;
-0.4167218,0.0018892288;
-0.41696402,0.0018889904;
-0.41720632,0.0018886328;
-0.41744775,0.0018883944;
-0.41768938,0.0018880367;
-0.41793066,0.0018877983;
-0.4181715,0.0018874407;
-0.41841257,0.0018872023;
-0.41865396,0.0018869638;
-0.41889447,0.0018866062;
-0.4191343,0.0018863678;
-0.41937461,0.0018861294;
-0.41961452,0.0018857718;
-0.4198542,0.0018855333;
-0.42009327,0.0018852949;
-0.4203321,0.0018849373;
-0.420571,0.0018846989;
-0.4208104,0.0018844604;
-0.4210489,0.0018841028;
-0.42128745,0.0018838644;
-0.4215253,0.001883626;
-0.4217637,0.0018833876;
-0.4220014,0.0018831491;
-0.42223912,0.0018827915;
-0.42247623,0.0018825531;
-0.42271316,0.0018823147;
-0.42295006,0.0018820763;
-0.42318678,0.0018818378;
-0.4234231,0.0018814802;
-0.42365876,0.0018813014;
-0.42389512,0.001881063;
-0.42413062,0.0018808246;
-0.42436633,0.0018805861;
-0.4246014,0.0018803477;
-0.42483628,0.0018801093;
-0.42507097,0.0018798709;
-0.42530546,0.0018796325;
-0.4255404,0.0018792748;
-0.42577428,0.0018790364;
-0.42600814,0.001878798;
-0.42624226,0.0018785596;
-0.4264758,0.0018783212;
-0.42670903,0.0018780828;
-0.4269421,0.0018778443;
-0.427175,0.0018776059;
-0.4274077,0.0018773675;
-0.42763993,0.0018771291;
-0.42787197,0.0018768907;
-0.42810357,0.0018766522;
-0.42833567,0.0018764138;
-0.4285669,0.0018762946;
-0.42879835,0.0018760562;
-0.42902917,0.0018758178;
-0.4292602,0.0018755794;
-0.42949083,0.0018753409;
-0.42972076,0.0018751025;
-0.42995122,0.0018748641;
-0.43018124,0.0018746257;
-0.43041083,0.0018743873;
-0.43064067,0.0018741488;
-0.4308701,0.0018740296;
-0.4310988,0.0018737912;
-0.43132752,0.0018735528;
-0.43155587,0.0018733144;
-0.43178445,0.001873076;
-0.43201238,0.0018728375;
-0.43224055,0.0018727183;
-0.4324683,0.0018724799;
-0.4326958,0.0018722415;
-0.43292242,0.0018720031;
-0.43315,0.0018718839;
-0.433376,0.0018716455;
-0.43360242,0.001871407;
-0.43382946,0.0018711686;
-0.43405503,0.0018710494;
-0.4342811,0.001870811;
-0.4345065,0.0018705726;
-0.43473196,0.0018703341;
-0.4349574,0.0018702149;
-0.4351822,0.0018699765;
-0.43540704,0.0018697381;
-0.43563184,0.0018696189;
-0.435856,0.0018693805;
-0.43608022,0.001869142;
-0.43630394,0.0018690228;
-0.4365277,0.0018687844;
-0.4367508,0.001868546;
-0.43697348,0.0018684268;
-0.43719664,0.0018681884;
-0.4374191,0.0018680692;
-0.4376418,0.0018678308;
-0.43786293,0.0018675923;
-0.43808502,0.0018674731;
-0.43830687,0.0018672347;
-0.43852848,0.0018671155;
-0.43874997,0.0018668771;
-0.4389712,0.0018666387;
-0.43919197,0.0018665195;
-0.43941233,0.001866281;
-0.43963265,0.0018661618;
-0.43985307,0.0018659234;
-0.4400728,0.0018658042;
-0.44029275,0.0018655658;
-0.44051203,0.0018655062;
-0.44073135,0.0018652678;
-0.44095019,0.0018651485;
-0.44116887,0.0018649101;
-0.44138753,0.0018647909;
-0.44160572,0.0018645525;
-0.4418235,0.0018644333;
-0.44204155,0.0018641949;
-0.4422591,0.0018640757;
-0.44247624,0.0018638372;
-0.44269368,0.001863718;
-0.44291058,0.0018634796;
-0.44312757,0.0018633604;
-0.44334364,0.0018632412;
-0.44356015,0.0018630028;
-0.44377622,0.0018628836;
-0.44399166,0.0018626451;
-0.4442073,0.0018625259;
-0.44442278,0.0018624067;
-0.44463798,0.0018621683;
-0.44485277,0.0018620491;
-0.44506735,0.0018618107;
-0.44528195,0.0018616915;
-0.44549537,0.0018615723;
-0.44570976,0.0018613338;
-0.44592395,0.0018612146;
-0.44613767,0.0018610954;
-0.44635117,0.001860857;
-0.44656447,0.0018607378;
-0.4467773,0.0018606186;
-0.44698945,0.0018603802;
-0.4472021,0.001860261;
-0.44741458,0.0018601418;
-0.44762582,0.0018600225;
-0.447838,0.0018597841;
-0.44804937,0.0018596649;
-0.4482607,0.0018595457;
-0.44847202,0.0018593073;
-0.44868243,0.0018591881;
-0.44889334,0.0018590689;
-0.44910356,0.0018589497;
-0.44931382,0.0018587112;
-0.44952404,0.001858592;
-0.44973412,0.0018584728;
-0.4499432,0.0018583536;
-0.45015237,0.0018581152;
-0.4503615,0.001857996;
-0.4505702,0.0018578768;
-0.45077893,0.0018577576;
-0.45098764,0.0018576384;
-0.45119596,0.0018573999;
-0.45140398,0.0018572807;
-0.4516113,0.0018571615;
-0.45181847,0.0018570423;
-0.4520259,0.0018569231;
-0.45223305,0.0018566847;
-0.45243979,0.0018565655;
-0.45264676,0.0018564463;
-0.4528528,0.001856327;
-0.45305908,0.0018562078;
-0.4532654,0.0018560886;
-0.453471,0.0018559694;
-0.45367712,0.001855731;
-0.45388186,0.0018556118;
-0.45408657,0.0018554926;
-0.45429125,0.0018553734;
-0.45449606,0.0018552542;
-0.45470032,0.001855135;
-0.45490465,0.0018550158;
-0.45510894,0.0018548965;
-0.45531282,0.0018547773;
-0.45551553,0.0018546581;
-0.45571923,0.0018545389;
-0.45592195,0.0018543005;
-0.4561251,0.0018541813;
-0.45632768,0.0018540621;
-0.45653024,0.0018539429;
-0.45673227,0.0018538237;
-0.4569344,0.0018537045;
-0.45713627,0.0018535852;
-0.4573374,0.001853466;
-0.4575386,0.0018533468;
-0.45773983,0.0018532276;
-0.45794055,0.0018531084;
-0.45814154,0.0018529892;
-0.45834228,0.00185287;
-0.4585421,0.0018527508;
-0.45874223,0.0018526316;
-0.45894212,0.0018525124;
-0.45914197,0.0018523932;
-0.45934138,0.0018522739;
-0.45954058,0.0018521547;
-0.45973954,0.0018520355;
-0.45993853,0.0018519163;
-0.4601375,0.0018517971;
-0.4603358,0.0018516779;
-0.46053338,0.0018515587;
-0.46073127,0.0018514395;
-0.4609291,0.0018513203;
-0.46112627,0.001851201;
-0.46132347,0.0018510818;
-0.4615204,0.0018509626;
-0.46171734,0.0018508434;
-0.46191433,0.0018508434;
-0.46211055,0.0018507242;
-0.46230686,0.001850605;
-0.46250266,0.0018504858;
-0.46269828,0.0018503666;
-0.4628936,0.0018502474;
-0.46308905,0.0018501282;
-0.46328372,0.001850009;
-0.46347907,0.0018498898;
-0.46367338,0.0018497705;
-0.4638678,0.0018497705;
-0.46406254,0.0018496513;
-0.4642563,0.0018495917;
-0.46445036,0.0018494725;
-0.46464366,0.0018493533;
-0.46483728,0.0018492341;
-0.46502993,0.0018491149;
-0.46522284,0.0018491149;
-0.46541643,0.0018489957;
-0.4656091,0.0018488765;
-0.4658013,0.0018487573;
-0.4659928,0.001848638;
-0.46618482,0.0018485188;
-0.4663768,0.0018483996;
-0.46656856,0.0018483996;
-0.4667599,0.0018482804;
-0.46695077,0.0018481612;
-0.46714163,0.001848042;
-0.46733245,0.0018479228;
-0.4675231,0.0018479228;
-0.4677135,0.0018478036;
-0.46790347,0.0018476844;
-0.46809366,0.0018475652;
-0.4682834,0.0018475652;
-0.46847266,0.001847446;
-0.46866214,0.0018473268;
-0.46885073,0.0018472075;
-0.46903974,0.0018470883;
-0.4692286,0.0018470883;
-0.46941745,0.0018469691;
-0.4696058,0.0018468499;
-0.4697937,0.0018467307;
-0.46998063,0.0018467307;
-0.47016853,0.0018466115;
-0.47035626,0.0018464923;
-0.4705432,0.0018463731;
-0.47072998,0.0018463731;
-0.470917,0.0018462539;
-0.47110423,0.0018461347;
-0.4712905,0.0018461347;
-0.47147655,0.0018460155;
-0.47166237,0.0018458962;
-0.47184798,0.001845777;
-0.47203413,0.001845777;
-0.4722195,0.0018456578;
-0.47240442,0.0018455386;
-0.47258958,0.0018455386;
-0.47277406,0.0018454194;
-0.47295922,0.0018453002;
-0.47314343,0.0018453002;
-0.47332743,0.001845181;
-0.47351125,0.0018450618;
-0.47369576,0.0018450618;
-0.47387907,0.0018449426;
-0.47406238,0.0018448234;
-0.4742457,0.0018448234;
-0.47442886,0.0018447042;
-0.47461239,0.001844585;
-0.4747943,0.001844585;
-0.47497675,0.0018444657;
-0.47515917,0.0018443465;
-0.47534105,0.0018443465;
-0.47552258,0.0018442273;
-0.47570452,0.0018441081;
-0.475886,0.0018441081;
-0.47606748,0.0018439889;
-0.4762485,0.0018439889;
-0.4764293,0.0018438697;
-0.47660965,0.0018437505;
-0.47679043,0.0018437505;
-0.47697103,0.0018436313;
-0.47715086,0.0018436313;
-0.4773307,0.0018435121;
-0.47751015,0.0018433928;
-0.47768977,0.0018433928;
-0.4778692,0.0018432736;
-0.4780484,0.0018432736;
-0.47822708,0.0018431544;
-0.47840604,0.0018431544;
-0.47858477,0.0018430352;
-0.4787628,0.001842916;
-0.4789408,0.001842916;
-0.47911906,0.0018427968;
-0.4792966,0.0018427968;
-0.4794744,0.0018426776;
-0.47965172,0.0018426776;
-0.4798281,0.0018425584;
-0.48000568,0.0018425584;
-0.48018253,0.0018424392;
-0.48035964,0.00184232;
-0.4805356,0.00184232;
-0.48071194,0.0018422008;
-0.48088843,0.0018422008;
-0.48106432,0.0018420815;
-0.48123956,0.0018420815;
-0.48141477,0.0018419623;
-0.4815902,0.0018419623;
-0.48176602,0.0018418431;
-0.48194122,0.0018418431;
-0.48211554,0.0018417239;
-0.48229006,0.0018417239;
-0.48246413,0.0018416047;
-0.48263842,0.0018416047;
-0.48281226,0.0018414855;
-0.48298582,0.0018414855;
-0.48315975,0.0018413663;
-0.48333314,0.0018413663;
-0.48350674,0.0018412471;
-0.4836796,0.0018412471;
-0.4838525,0.0018411279;
-0.4840252,0.0018411279;
-0.48419785,0.0018411279;
-0.48437032,0.0018410087;
-0.48454183,0.0018410087;
-0.4847138,0.0018408895;
-0.48488554,0.0018408895;
-0.48505706,0.0018407702;
-0.48522902,0.0018407702;
-0.4854003,0.001840651;
-0.48557112,0.001840651;
-0.48574167,0.001840651;
-0.48591244,0.0018405318;
-0.4860833,0.0018405318;
-0.48625383,0.0018404126;
-0.48642346,0.0018404126;
-0.48659337,0.0018402934;
-0.48676273,0.0018402934;
-0.48693237,0.0018402934;
-0.48710158,0.0018401742;
-0.4872707,0.0018401742;
-0.48744008,0.001840055;
-0.48760998,0.001840055;
-0.48777822,0.001840055;
-0.48794648,0.0018399358;
-0.48811445,0.0018399358;
-0.48828292,0.0018398166;
-0.4884504,0.0018398166;
-0.4886187,0.0018398166;
-0.48878646,0.0018396974;
-0.48895445,0.0018396974;
-0.48912197,0.0018395782;
-0.48928857,0.0018395782;
-0.48945588,0.0018395782;
-0.4896224,0.001839459;
-0.4897883,0.001839459;
-0.48995513,0.001839459;
-0.49012145,0.0018393397;
-0.49028778,0.0018393397;
-0.49045393,0.0018392205;
-0.49061862,0.0018392205;
-0.49078447,0.0018392205;
-0.49095017,0.0018391013;
-0.4911151,0.0018391013;
-0.49127978,0.0018391013;
-0.49144474,0.0018389821;
-0.49160892,0.0018389821;
-0.49177343,0.0018389821;
-0.49193785,0.0018388629;
-0.49210137,0.0018388629;
-0.4922661,0.0018388629;
-0.49243012,0.0018388629;
-0.49259406,0.0018387437;
-0.49275756,0.0018387437;
-0.49292064,0.0018387437;
-0.49308345,0.0018386245;
-0.49324697,0.0018386245;
-0.4934098,0.0018386245;
-0.49357307,0.0018385053;
-0.49373472,0.0018385053;
-0.49389634,0.0018385053;
-0.49405912,0.0018385053;
-0.49422148,0.0018383861;
-0.49438313,0.0018383861;
-0.49454403,0.0018383861;
-0.4947049,0.0018383861;
-0.49486682,0.0018382668;
-0.4950282,0.0018382668;
-0.4951893,0.0018382668;
-0.49535003,0.0018381476;
-0.4955105,0.0018381476;
-0.4956707,0.0018381476;
-0.4958309,0.0018381476;
-0.49599063,0.0018380284;
-0.49615055,0.0018380284;
-0.4963103,0.0018380284;
-0.49647003,0.0018380284;
-0.4966293,0.0018379092;
-0.49678782,0.0018379092;
-0.49694756,0.0018379092;
-0.49710634,0.0018379092;
-0.4972649,0.00183779;
-0.49742413,0.00183779;
-0.4975822,0.00183779;
-0.49774027,0.00183779;
-0.49789792,0.0018376708;
-0.49805665,0.0018376708;
-0.4982145,0.0018376708;
-0.49837163,0.0018376708;
-0.49852896,0.0018376708;
-0.4986863,0.0018375516;
-0.49884343,0.0018375516;
-0.49900052,0.0018375516;
-0.49915648,0.0018375516;
-0.49931335,0.0018375516;
-0.4994695,0.0018374324;
-0.4996262,0.0018374324;
-0.499783,0.0018374324;
-0.49993825,0.0018374324;
-0.5000942,0.0018374324;
-0.50024986,0.0018373132;
-0.5004051,0.0018373132;
-0.50056076,0.0018373132;
-0.5007155,0.0018373132;
-0.50087166,0.0018373132;
-0.50102615,0.0018373132;
-0.5011811,0.001837194;
-0.5013342,0.001837194;
-0.5014887,0.001837194;
-0.50164413,0.001837194;
-0.5017977,0.001837194;
-0.5019512,0.001837194;
-0.50210476,0.0018370748;
-0.5022587,0.0018370748;
-0.50241274,0.0018370748;
-0.50256634,0.0018370748;
-0.5027189,0.0018370748;
-0.5028705,0.0018370748;
-0.50302404,0.0018370748;
-0.50317717,0.0018369555;
-0.5033292,0.0018369555;
-0.5034818,0.0018369555;
-0.5036339,0.0018369555;
-0.503786,0.0018369555;
-0.5039381,0.0018369555;
-0.50408876,0.0018369555;
-0.50423944,0.0018369555;
-0.5043925,0.0018368363;
-0.50454414,0.0018368363;
-0.5046958,0.0018368363;
-0.5048459,0.0018368363;
-0.5049971,0.0018368363;
-0.50514823,0.0018368363;
-0.505297,0.0018368363;
-0.50544715,0.0018368363;
-0.5055983,0.0018368363;
-0.5057485,0.0018367171;
-0.50589913,0.0018367171;
-0.5060479,0.0018367171;
-0.50619906,0.0018367171;
-0.5063478,0.0018367171;
-0.50649655,0.0018367171;
-0.5066443,0.0018367171;
-0.50679404,0.0018367171;
-0.50694275,0.0018367171;
-0.50709105,0.0018367171;
-0.5072408,0.0018367171;
-0.50738996,0.0018367171;
-0.50753725,0.0018365979;
-0.5076845,0.0018365979;
-0.5078333,0.0018365979;
-0.5079801,0.0018365979;
-0.5081284,0.0018365979;
-0.50827664,0.0018365979;
-0.508424,0.0018365979;
-0.5085703,0.0018365979;
-0.5087176,0.0018365979;
-0.5088639,0.0018365979;
-0.5090108,0.0018365979;
-0.50915855,0.0018365979;
-0.5093049,0.0018365979;
-0.50945073,0.0018365979;
-0.5095961,0.0018365979;
-0.50974244,0.0018365979;
-0.5098888,0.0018365979;
-0.51003414,0.0018365979;
-0.5101796,0.0018365979;
-0.5103254,0.0018365979;
-0.5104713,0.0018365979;
-0.5106161,0.0018365979;
-0.51076007,0.0018365979;
-0.51090544,0.0018364787;
-0.51104987,0.0018364787;
-0.51119477,0.0018364787;
-0.5113396,0.0018364787;
-0.5114845,0.0018364787;
-0.511628,0.0018364787;
-0.51177233,0.0018364787;
-0.51191485,0.0018364787;
-0.51205975,0.0018364787;
-0.5122022,0.0018364787;
-0.5123457,0.0018364787;
-0.5124891,0.0018364787;
-0.5126316,0.0018364787;
-0.51277506,0.0018364787;
-0.512918,0.0018364787;
-0.5130609,0.0018364787;
-0.51320297,0.0018364787;
-0.5133454,0.0018365979;
-0.5134874,0.0018365979;
-0.51362944,0.0018365979;
-0.51377237,0.0018365979;
-0.51391387,0.0018365979;
-0.5140563,0.0018365979;
-0.5141983,0.0018365979;
-0.5143384,0.0018365979;
-0.51448035,0.0018365979;
-0.5146214,0.0018365979;
-0.5147619,0.0018365979;
-0.5149034,0.0018365979;
-0.5150435,0.0018365979;
-0.515185,0.0018365979;
-0.5153246,0.0018365979;
-0.5154651,0.0018365979;
-0.51560515,0.0018365979;
-0.5157462,0.0018365979;
-0.5158857,0.0018365979;
-0.51602525,0.0018365979;
-0.51616484,0.0018365979;
-0.51630443,0.0018365979;
-0.5164435,0.0018367171;
-0.51658356,0.0018367171;
-0.51672214,0.0018367171;
-0.51686174,0.0018367171;
-0.5170003,0.0018367171;
-0.5171389,0.0018367171;
-0.51727754,0.0018367171;
-0.5174161,0.0018367171;
-0.5175542,0.0018367171;
-0.5176928,0.0018367171;
-0.51783043,0.0018367171;
-0.51796806,0.0018367171;
-0.5181052,0.0018368363;
-0.51824427,0.0018368363;
-0.5183819,0.0018368363;
-0.51851904,0.0018368363;
-0.5186557,0.0018368363;
-0.5187924,0.0018368363;
-0.51892996,0.0018368363;
-0.5190671,0.0018368363;
-0.5192033,0.0018368363;
-0.5193404,0.0018368363;
-0.51947564,0.0018369555;
-0.51961225,0.0018369555;
-0.5197489,0.0018369555;
-0.51988554,0.0018369555;
-0.5200212,0.0018369555;
-0.5201564,0.0018369555;
-0.5202926,0.0018369555;
-0.52042824,0.0018369555;
-0.5205639,0.0018370748;
-0.5206996,0.0018370748;
-0.52083427,0.0018370748;
-0.52096903,0.0018370748;
-0.5211052,0.0018370748;
-0.52123934,0.0018370748;
-0.52137357,0.0018370748;
-0.52150875,0.0018370748;
-0.521642,0.001837194;
-0.52177674,0.001837194;
-0.5219109,0.001837194;
-0.5220456,0.001837194;
-0.5221788,0.001837194;
-0.52231264,0.001837194;
-0.5224454,0.001837194;
-0.5225786,0.0018373132;
-0.5227114,0.0018373132;
-0.5228451,0.0018373132;
-0.5229788,0.0018373132;
-0.52311105,0.0018373132;
-0.5232448,0.0018373132;
-0.52337706,0.0018373132;
-0.52350885,0.0018374324;
-0.52364206,0.0018374324;
-0.5237748,0.0018374324;
-0.52390707,0.0018374324;
-0.5240384,0.0018374324;
-0.5241701,0.0018375516;
-0.5243019,0.0018375516;
-0.5244337,0.0018375516;
-0.5245664,0.0018375516;
-0.5246963,0.0018375516;
-0.524829,0.0018375516;
-0.5249603,0.0018376708;
-0.52509105,0.0018376708;
-0.5252218,0.0018376708;
-0.5253522,0.0018376708;
-0.52548295,0.0018376708;
-0.5256138,0.00183779;
-0.525744,0.00183779;
-0.5258744,0.00183779;
-0.5260042,0.00183779;
-0.5261345,0.00183779;
-0.52626336,0.0018379092;
-0.5263946,0.0018379092;
-0.5265235,0.0018379092;
-0.5266528,0.0018379092;
-0.5267821,0.0018380284;
-0.5269124,0.0018380284;
-0.52704173,0.0018380284;
-0.52717054,0.0018380284;
-0.5272994,0.0018380284;
-0.52742827,0.0018381476;
-0.52755564,0.0018381476;
-0.527685,0.0018381476;
-0.5278138,0.0018381476;
-0.5279421,0.0018382668;
-0.52807045,0.0018382668;
-0.5282007,0.0018382668;
-0.5283276,0.0018382668;
-0.5284559,0.0018383861;
-0.52858335,0.0018383861;
-0.5287107,0.0018383861;
-0.52883905,0.0018383861;
-0.5289659,0.0018385053;
-0.5290928,0.0018385053;
-0.5292192,0.0018385053;
-0.52934706,0.0018385053;
-0.5294739,0.0018386245;
-0.5296013,0.0018386245;
-0.52972716,0.0018386245;
-0.529855,0.0018386245;
-0.5299814,0.0018387437;
-0.53010774,0.0018387437;
-0.5302341,0.0018387437;
-0.53035957,0.0018387437;
-0.53048545,0.0018388629;
-0.5306104,0.0018388629;
-0.53073627,0.0018388629;
-0.5308626,0.0018389821;
-0.530988,0.0018389821;
-0.5311134,0.0018389821;
-0.5312393,0.0018389821;
-0.5313652,0.0018391013;
-0.53149056,0.0018391013;
-0.53161496,0.0018391013;
-0.5317399,0.0018391013;
-0.5318638,0.0018392205;
-0.53198874,0.0018392205;
-0.5321136,0.0018392205;
-0.5322376,0.0018393397;
-0.532362,0.0018393397;
-0.5324864,0.0018393397;
-0.5326103,0.0018393397;
-0.53273565,0.001839459;
-0.5328586,0.001839459;
-0.53298205,0.001839459;
-0.53310597,0.0018395782;
-0.5332294,0.0018395782;
-0.5333524,0.0018395782;
-0.5334758,0.0018395782;
-0.5335992,0.0018396974;
-0.53372264,0.0018396974;
-0.533846,0.0018396974;
-0.53396803,0.0018398166;
-0.53409004,0.0018398166;
-0.53421295,0.0018398166;
-0.5343354,0.0018399358;
-0.5344583,0.0018399358;
-0.5345803,0.0018399358;
-0.5347022,0.001840055;
-0.5348237,0.001840055;
-0.53494614,0.001840055;
-0.5350676,0.0018401742;
-0.53519005,0.0018401742;
-0.535311,0.0018401742;
-0.535432,0.0018402934;
-0.5355544,0.0018402934;
-0.5356758,0.0018402934;
-0.53579676,0.0018404126;
-0.53591776,0.0018404126;
-0.5360383,0.0018404126;
-0.5361592,0.0018405318;
-0.53628016,0.0018405318;
-0.53640115,0.0018405318;
-0.53652066,0.001840651;
-0.5366416,0.001840651;
-0.53676206,0.0018407702;
-0.536883,0.0018407702;
-0.53700346,0.0018407702;
-0.5371239,0.0018408895;
-0.5372425,0.0018408895;
-0.53736246,0.0018408895;
-0.5374824,0.0018410087;
-0.5376014,0.0018410087;
-0.53772134,0.0018410087;
-0.5378399,0.0018411279;
-0.53795934,0.0018411279;
-0.53807837,0.0018412471;
-0.53819734,0.0018412471;
-0.5383163,0.0018412471;
-0.53843576,0.0018413663;
-0.53855336,0.0018413663;
-0.5386718,0.0018413663;
-0.53879035,0.0018414855;
-0.53890926,0.0018414855;
-0.5390273,0.0018416047;
-0.53914624,0.0018416047;
-0.5392638,0.0018416047;
-0.5393813,0.0018417239;
-0.53949976,0.0018417239;
-0.5396178,0.0018418431;
-0.5397353,0.0018418431;
-0.53985226,0.0018418431;
-0.5399698,0.0018419623;
-0.5400878,0.0018419623;
-0.5402053,0.0018420815;
-0.54032224,0.0018420815;
-0.54043883,0.0018420815;
-0.54055536,0.0018422008;
-0.5406719,0.0018422008;
-0.5407889,0.00184232;
-0.5409059,0.00184232;
-0.54102284,0.0018424392;
-0.5411389,0.0018424392;
-0.54125494,0.0018424392;
-0.54137236,0.0018425584;
-0.54148793,0.0018425584;
-0.5416021,0.0018426776;
-0.541719,0.0018426776;
-0.5418355,0.0018426776;
-0.5419515,0.0018427968;
-0.5420666,0.0018427968;
-0.5421816,0.001842916;
-0.5422981,0.001842916;
-0.5424131,0.0018430352;
-0.5425267,0.0018430352;
-0.5426427,0.0018430352;
-0.5427587,0.0018431544;
-0.5428732,0.0018431544;
-0.54298824,0.0018432736;
-0.54310226,0.0018432736;
-0.5432173,0.0018433928;
-0.5433314,0.0018433928;
-0.5434454,0.0018435121;
-0.5435604,0.0018435121;
-0.54367495,0.0018435121;
-0.5437885,0.0018436313;
-0.54390156,0.0018436313;
-0.5440161,0.0018437505;
-0.5441301,0.0018437505;
-0.54424363,0.0018438697;
-0.54435724,0.0018438697;
-0.5444698,0.0018439889;
-0.5445838,0.0018439889;
-0.54469734,0.0018439889;
-0.5448099,0.0018441081;
-0.5449239,0.0018441081;
-0.54503834,0.0018442273;
-0.5451495,0.0018442273;
-0.54526204,0.0018443465;
-0.5453751,0.0018443465;
-0.5454891,0.0018444657;
-0.54560065,0.0018444657;
-0.54571277,0.001844585;
-0.5458253,0.001844585;
-0.54593825,0.0018447042;
-0.5460508,0.0018447042;
-0.54616237,0.0018448234;
-0.5462749,0.0018448234;
-0.54638594,0.0018448234;
-0.54649657,0.0018449426;
-0.5466086,0.0018449426;
-0.5467202,0.0018450618;
-0.5468317,0.0018450618;
-0.5469438,0.001845181;
-0.5470548,0.001845181;
-0.5471654,0.0018453002;
-0.547277,0.0018453002;
-0.54738796,0.0018454194;
-0.5474981,0.0018454194;
-0.5476087,0.0018455386;
-0.54772013,0.0018455386;
-0.54783076,0.0018456578;
-0.54794127,0.0018456578;
-0.5480519,0.001845777;
-0.5481619,0.0018458962;
-0.54827243,0.0018458962;
-0.548383,0.0018460155;
-0.54849255,0.0018460155;
-0.54860216,0.0018461347;
-0.54871315,0.0018461347;
-0.5488237,0.0018462539;
-0.5489328,0.0018462539;
-0.5490414,0.0018463731;
-0.54915094,0.0018463731;
-0.54925954,0.0018464923;
-0.54936814,0.0018464923;
-0.5494777,0.0018466115;
-0.5495882,0.0018466115;
-0.54969776,0.0018467307;
-0.5498068,0.0018467307;
-0.54991496,0.0018468499;
-0.5500235,0.0018468499;
-0.5501325,0.0018469691;
-0.5502411,0.0018469691;
-0.5503492,0.0018470883;
-0.5504578,0.0018470883;
-0.5505663,0.0018472075;
-0.5506739,0.0018473268;
-0.55078244,0.0018473268;
-0.5508901,0.001847446;
-0.5509977,0.001847446;
-0.5511057,0.0018475652;
-0.5512128,0.0018475652;
-0.5513213,0.0018476844;
-0.5514289,0.0018476844;
-0.551537,0.0018478036;
-0.55164355,0.0018479228;
-0.5517511,0.0018479228;
-0.55185866,0.001848042;
-0.5519662,0.001848042;
-0.55207276,0.0018481612;
-0.5521799,0.0018481612;
-0.5522869,0.0018482804;
-0.5523931,0.0018482804;
-0.5524992,0.0018483996;
-0.5526076,0.0018485188;
-0.5527133,0.0018485188;
-0.5528194,0.001848638;
-0.55292636,0.001848638;
-0.55303293,0.0018487573;
-0.55313855,0.0018488765;
-0.5532441,0.0018488765;
-0.5533507,0.0018489957;
-0.5534568,0.0018489957;
-0.55356187,0.0018491149;
-0.5536679,0.0018491149;
-0.5537744,0.0018492341;
-0.55387956,0.0018493533;
-0.55398417,0.0018493533;
-0.5540897,0.0018494725;
-0.55419624,0.0018494725;
-0.55430037,0.0018495917;
-0.55440587,0.0018496513;
-0.55451053,0.0018496513;
-0.55461556,0.0018497705;
-0.55472016,0.0018497705;
-0.5548257,0.0018498898;
-0.55493027,0.001850009;
-0.5550344,0.001850009;
-0.5551385,0.0018501282;
-0.5552426,0.0018501282;
-0.5553472,0.0018502474;
-0.55545074,0.0018503666;
-0.5555548,0.0018503666;
-0.5556594,0.0018504858;
-0.5557635,0.0018504858;
-0.55586755,0.001850605;
-0.5559716,0.0018507242;
-0.5560752,0.0018507242;
-0.5561783,0.0018508434;
-0.5562824,0.0018508434;
-0.5563864,0.0018509626;
-0.55648947,0.0018510818;
-0.5565921,0.0018510818;
-0.5566957,0.001851201;
-0.55679876,0.001851201;
-0.5569019,0.0018513203;
-0.557004,0.0018514395;
-0.55710703,0.0018514395;
-0.5572096,0.0018515587;
-0.55731314,0.0018516779;
-0.5574157,0.0018516779;
-0.5575188,0.0018517971;
-0.5576209,0.0018519163;
-0.55772346,0.0018519163;
-0.55782557,0.0018520355;
-0.5579281,0.0018520355;
-0.55803114,0.0018521547;
-0.5581318,0.0018522739;
-0.5582334,0.0018522739;
-0.55833596,0.0018523932;
-0.558438,0.0018525124;
-0.5585386,0.0018525124;
-0.55864024,0.0018526316;
-0.5587423,0.0018527508;
-0.55884385,0.0018527508;
-0.55894494,0.00185287;
-0.5590465,0.00185287;
-0.55914897,0.0018529892;
-0.55925006,0.0018531084;
-0.55935115,0.0018531084;
-0.5594513,0.0018532276;
-0.55955327,0.0018533468;
-0.55965483,0.0018533468;
-0.5597545,0.001853466;
-0.55985415,0.0018535852;
-0.5599547,0.0018535852;
-0.5600562,0.0018537045;
-0.5601554,0.0018538237;
-0.56025547,0.0018538237;
-0.560356,0.0018539429;
-0.5604566,0.0018540621;
-0.56055576,0.0018540621;
-0.5606567,0.0018541813;
-0.5607573,0.0018543005;
-0.56085783,0.0018543005;
-0.5609565,0.0018544197;
-0.561056,0.0018545389;
-0.56115466,0.0018545389;
-0.5612552,0.0018546581;
-0.56135476,0.0018547773;
-0.5614539,0.0018548965;
-0.5615534,0.0018548965;
-0.56165206,0.0018550158;
-0.5617511,0.001855135;
-0.56185114,0.001855135;
-0.5619502,0.0018552542;
-0.56204927,0.0018553734;
-0.5621469,0.0018553734;
-0.5622455,0.0018554926;
-0.56234455,0.0018556118;
-0.5624441,0.001855731;
-0.5625422,0.001855731;
-0.5626412,0.0018558502;
-0.56273836,0.0018559694;
-0.5628369,0.0018559694;
-0.56293595,0.0018560886;
-0.5630336,0.0018562078;
-0.56313205,0.0018562078;
-0.56322926,0.001856327;
-0.5633273,0.0018564463;
-0.56342536,0.0018565655;
-0.5635238,0.0018565655;
-0.56362146,0.0018566847;
-0.5637181,0.0018568039;
-0.56381613,0.0018568039;
-0.56391317,0.0018569231;
-0.5640108,0.0018570423;
-0.5641079,0.0018571615;
-0.5642054,0.0018571615;
-0.5643025,0.0018572807;
-0.56439954,0.0018573999;
-0.5644971,0.0018573999;
-0.5645937,0.0018575191;
-0.56469023,0.0018576384;
-0.56478685,0.0018577576;
-0.56488293,0.0018577576;
-0.5649809,0.0018578768;
-0.565077,0.001857996;
-0.5651727,0.001857996;
-0.56526923,0.0018581152;
-0.5653658,0.0018582344;
-0.5654623,0.0018583536;
-0.56555796,0.0018583536;
-0.56565446,0.0018584728;
-0.56575054,0.001858592;
-0.56584704,0.0018587112;
-0.5659417,0.0018587112;
-0.5660373,0.0018588305;
-0.56613284,0.0018589497;
-0.56622887,0.0018590689;
-0.5663249,0.0018590689;
-0.5664205,0.0018591881;
-0.56651556,0.0018593073;
-0.5666111,0.0018593073;
-0.5667062,0.0018594265;
-0.5668013,0.0018595457;
-0.5668964,0.0018596649;
-0.5669914,0.0018596649;
-0.56708694,0.0018597841;
-0.56718105,0.0018599033;
-0.5672766,0.0018600225;
-0.5673716,0.0018600225;
-0.5674662,0.0018601418;
-0.56756073,0.001860261;
-0.5676553,0.0018603802;
-0.56774986,0.0018603802;
-0.5678435,0.0018604994;
-0.56793845,0.0018606186;
-0.56803256,0.0018607378;
-0.5681266,0.0018607378;
-0.56822115,0.001860857;
-0.5683152,0.0018609762;
-0.56840926,0.0018610954;
-0.56850284,0.0018612146;
-0.5685964,0.0018612146;
-0.5686909,0.0018613338;
-0.56878495,0.001861453;
-0.568879,0.0018615723;
-0.56897205,0.0018615723;
-0.56906474,0.0018616915;
-0.5691587,0.0018618107;
-0.56925225,0.0018619299;
-0.5693453,0.0018620491;
-0.56943786,0.0018620491;
-0.56953096,0.0018621683;
-0.569624,0.0018622875;
-0.56971705,0.0018624067;
-0.5698097,0.0018625259;
-0.5699022,0.0018625259;
-0.5699962,0.0018626451;
-0.57008916,0.0018627644;
-0.57018226,0.0018628836;
-0.5702748,0.0018628836;
-0.57036686,0.0018630028;
-0.5704594,0.001863122;
-0.57055146,0.0018632412;
-0.5706435,0.0018633604;
-0.57073605,0.0018634796;
-0.57082623,0.0018634796;
-0.5709188,0.0018635988;
-0.5710113,0.001863718;
-0.57110333,0.0018638372;
-0.57119584,0.0018639565;
-0.57128644,0.0018639565;
-0.57137895,0.0018640757;
-0.5714705,0.0018641949;
-0.57156205,0.0018643141;
-0.571654,0.0018644333;
-0.5717456,0.0018645525;
-0.57183665,0.0018645525;
-0.5719277,0.0018646717;
-0.57201874,0.0018647909;
-0.57210934,0.0018649101;
-0.5722009,0.0018650293;
-0.5722924,0.0018650293;
-0.5723834,0.0018651485;
-0.5724735,0.0018652678;
-0.5725655,0.001865387;
-0.5726565,0.0018655062;
-0.57274705,0.0018655658;
-0.5728376,0.0018655658;
-0.5729272,0.001865685;
-0.5730182,0.0018658042;
-0.57310826,0.0018659234;
-0.5731983,0.0018660426;
-0.5732884,0.0018661618;
-0.5733794,0.0018661618;
-0.5734694,0.001866281;
-0.57355857,0.0018664002;
-0.5736486,0.0018665195;
-0.5737395,0.0018666387;
-0.57382953,0.0018667579;
-0.57391953,0.0018667579;
-0.5740091,0.0018668771;
-0.57409865,0.0018669963;
-0.5741882,0.0018671155;
-0.5742768,0.0018672347;
-0.5743668,0.0018673539;
-0.57445633,0.0018673539;
-0.57454675,0.0018674731;
-0.5746358,0.0018675923;
-0.57472485,0.0018677115;
-0.5748139,0.0018678308;
-0.5749034,0.00186795;
-0.5749915,0.0018680692;
-0.575081,0.0018680692;
-0.57516956,0.0018681884;
-0.57525855,0.0018683076;
-0.5753481,0.0018684268;
-0.575437,0.001868546;
-0.5755251,0.0018686652;
-0.5756141,0.0018687844;
-0.5757022,0.0018689036;
-0.5757902,0.0018689036;
-0.57587874,0.0018690228;
-0.57596725,0.001869142;
-0.5760553,0.0018692613;
-0.5761433,0.0018693805;
-0.57623225,0.0018694997;
-0.5763203,0.0018696189;
-0.5764083,0.0018696189;
-0.5764959,0.0018697381;
-0.5765834,0.0018698573;
-0.5766714,0.0018699765;
-0.5767589,0.0018700957;
-0.5768479,0.0018702149;
-0.5769345,0.0018703341;
-0.57702154,0.0018704534;
-0.5771095,0.0018704534;
-0.577197,0.0018705726;
-0.5772845,0.0018706918;
-0.577372,0.001870811;
-0.57745767,0.0018709302;
-0.57754606,0.0018710494;
-0.57763267,0.0018711686;
-0.5777201,0.0018712878;
-0.57780623,0.0018712878;
-0.57789373,0.001871407;
-0.5779807,0.0018715262;
-0.57806766,0.0018716455;
-0.5781547,0.0018717647;
-0.57824117,0.0018718839;
-0.57832676,0.0018720031;
-0.5784147,0.0018721223;
-0.57850075,0.0018722415;
-0.5785858,0.0018722415;
-0.5786728,0.0018723607;
-0.57875884,0.0018724799;
-0.5788458,0.0018725991;
-0.57893133,0.0018727183;
-0.5790178,0.0018728375;
-0.5791038,0.0018729568;
-0.57919073,0.001873076;
-0.5792763,0.0018731952;
-0.57936186,0.0018731952;
-0.5794473,0.0018733144;
-0.57953334,0.0018734336;
-0.57961935,0.0018735528;
-0.57970434,0.001873672;
-0.57978946,0.0018737912;
-0.57987535,0.0018739104;
-0.5799604,0.0018740296;
-0.58004546,0.0018741488;
-0.58013135,0.001874268;
-0.5802168,0.0018743873;
-0.5803014,0.0018743873;
-0.580386,0.0018745065;
-0.58047146,0.0018746257;
-0.58055687,0.0018747449;
-0.5806419,0.0018748641;
-0.58072686,0.0018749833;
-0.58081234,0.0018751025;
-0.58089733,0.0018752217;
-0.5809818,0.0018753409;
-0.5810654,0.0018754601;
-0.5811508,0.0018755794;
-0.58123535,0.0018756986;
-0.58131933,0.0018758178;
-0.5814038,0.001875937;
-0.5814879,0.0018760562;
-0.58157235,0.0018760562;
-0.58165723,0.0018761754;
-0.58174175,0.0018762946;
-0.58182526,0.0018764138;
-0.58190835,0.001876533;
-0.5819923,0.0018766522;
-0.5820768,0.0018767715;
-0.5821608,0.0018768907;
-0.5822438,0.0018770099;
-0.5823282,0.0018771291;
-0.5824122,0.0018772483;
-0.5824966,0.0018773675;
-0.5825787,0.0018774867;
-0.58266264,0.0018776059;
-0.5827457,0.0018777251;
-0.58282965,0.0018778443;
-0.5829131,0.0018779635;
-0.582997,0.0018780828;
-0.5830787,0.001878202;
-0.58316207,0.0018783212;
-0.583246,0.0018783212;
-0.58332896,0.0018784404;
-0.5834124,0.0018785596;
-0.58349496,0.0018786788;
-0.58357745,0.001878798;
-0.5836604,0.0018789172;
